<?xml version="1.0"?>
<opencv_storage>
<cascade>
  <stageType>BOOST</stageType>
  <featureType>HAAR</featureType>
  <height>60</height>
  <width>35</width>
  <stageParams>
    <boostType>GAB</boostType>
    <minHitRate>9.9500000476837158e-01</minHitRate>
    <maxFalseAlarm>5.0000000000000000e-01</maxFalseAlarm>
    <weightTrimRate>9.4999998807907104e-01</weightTrimRate>
    <maxDepth>1</maxDepth>
    <maxWeakCount>100</maxWeakCount></stageParams>
  <featureParams>
    <maxCatCount>0</maxCatCount>
    <featSize>1</featSize>
    <mode>BASIC</mode></featureParams>
  <stageNum>4</stageNum>
  <stages>
    <!-- stage 0 -->
    <_>
      <maxWeakCount>2</maxWeakCount>
      <stageThreshold>-6.5010875463485718e-01</stageThreshold>
      <weakClassifiers>
        <_>
          <internalNodes>
            0 -1 8 -1.7304711043834686e-02</internalNodes>
          <leafValues>
            3.4615385532379150e-01 -9.9189460277557373e-01</leafValues></_>
        <_>
          <internalNodes>
            0 -1 2 1.5870794653892517e-02</internalNodes>
          <leafValues>
            -9.9626260995864868e-01 5.2819651365280151e-01</leafValues></_></weakClassifiers></_>
    <!-- stage 1 -->
    <_>
      <maxWeakCount>3</maxWeakCount>
      <stageThreshold>-1.3773955106735229e+00</stageThreshold>
      <weakClassifiers>
        <_>
          <internalNodes>
            0 -1 1 3.3125567436218262e-01</internalNodes>
          <leafValues>
            -9.7412937879562378e-01 5.2941179275512695e-01</leafValues></_>
        <_>
          <internalNodes>
            0 -1 3 -9.6800150349736214e-03</internalNodes>
          <leafValues>
            7.1462589502334595e-01 -9.4304627180099487e-01</leafValues></_>
        <_>
          <internalNodes>
            0 -1 0 1.0620886459946632e-02</internalNodes>
          <leafValues>
            -9.6376103162765503e-01 6.4834237098693848e-01</leafValues></_></weakClassifiers></_>
    <!-- stage 2 -->
    <_>
      <maxWeakCount>3</maxWeakCount>
      <stageThreshold>-1.3891448974609375e+00</stageThreshold>
      <weakClassifiers>
        <_>
          <internalNodes>
            0 -1 6 -5.3811978548765182e-02</internalNodes>
          <leafValues>
            8.8235294818878174e-01 -9.5499020814895630e-01</leafValues></_>
        <_>
          <internalNodes>
            0 -1 5 -3.5456784069538116e-02</internalNodes>
          <leafValues>
            3.6944624781608582e-01 -9.4403386116027832e-01</leafValues></_>
        <_>
          <internalNodes>
            0 -1 9 -4.4268732890486717e-03</internalNodes>
          <leafValues>
            5.0987917184829712e-01 -9.9272763729095459e-01</leafValues></_></weakClassifiers></_>
    <!-- stage 3 -->
    <_>
      <maxWeakCount>2</maxWeakCount>
      <stageThreshold>-8.0479806661605835e-01</stageThreshold>
      <weakClassifiers>
        <_>
          <internalNodes>
            0 -1 4 -2.6894830167293549e-02</internalNodes>
          <leafValues>
            1.5384615957736969e-01 -9.8176294565200806e-01</leafValues></_>
        <_>
          <internalNodes>
            0 -1 7 -1.2402908876538277e-02</internalNodes>
          <leafValues>
            2.2480235993862152e-01 -9.5864421129226685e-01</leafValues></_></weakClassifiers></_></stages>
  <features>
    <_>
      <rects>
        <_>
          0 0 20 6 -1.</_>
        <_>
          0 0 10 3 2.</_>
        <_>
          10 3 10 3 2.</_></rects>
      <tilted>0</tilted></_>
    <_>
      <rects>
        <_>
          1 2 33 36 -1.</_>
        <_>
          12 2 11 36 3.</_></rects>
      <tilted>0</tilted></_>
    <_>
      <rects>
        <_>
          1 14 4 23 -1.</_>
        <_>
          3 14 2 23 2.</_></rects>
      <tilted>0</tilted></_>
    <_>
      <rects>
        <_>
          3 44 4 16 -1.</_>
        <_>
          3 44 2 8 2.</_>
        <_>
          5 52 2 8 2.</_></rects>
      <tilted>0</tilted></_>
    <_>
      <rects>
        <_>
          11 33 9 12 -1.</_>
        <_>
          11 39 9 6 2.</_></rects>
      <tilted>0</tilted></_>
    <_>
      <rects>
        <_>
          14 31 7 24 -1.</_>
        <_>
          14 39 7 8 3.</_></rects>
      <tilted>0</tilted></_>
    <_>
      <rects>
        <_>
          14 44 20 14 -1.</_>
        <_>
          14 44 10 7 2.</_>
        <_>
          24 51 10 7 2.</_></rects>
      <tilted>0</tilted></_>
    <_>
      <rects>
        <_>
          25 0 8 14 -1.</_>
        <_>
          25 0 4 7 2.</_>
        <_>
          29 7 4 7 2.</_></rects>
      <tilted>0</tilted></_>
    <_>
      <rects>
        <_>
          30 27 4 26 -1.</_>
        <_>
          32 27 2 26 2.</_></rects>
      <tilted>0</tilted></_>
    <_>
      <rects>
        <_>
          30 45 3 10 -1.</_>
        <_>
          30 50 3 5 2.</_></rects>
      <tilted>0</tilted></_></features></cascade>
</opencv_storage>
